{"type":"LSTMTimeStep","options":{"inputSize":4,"inputRange":0,"hiddenLayers":[8,8],"outputSize":4,"decayRate":0.999,"smoothEps":1e-8,"regc":0.000001,"clipval":5,"maxPredictionLength":100,"dataFormatter":{"indexTable":{},"characterTable":{},"characters":[],"specialIndexes":[]}},"hiddenLayers":[{"inputMatrix":{"rows":8,"columns":4,"weights":[0.754003643989563,0.1847870796918869,-0.8891529440879822,-1.26064932346344,0.5868598818778992,0.496518611907959,1.0676684379577637,0.5997748970985413,0.367943674325943,0.40791335701942444,0.8577709197998047,0.47867733240127563,-0.021969523280858994,0.0737496092915535,0.4551849961280823,0.24781087040901184,0.3852597773075104,0.3796851336956024,0.7129482626914978,0.5145128965377808,0.5925703644752502,0.5406658053398132,0.5096136927604675,0.7005853652954102,0.091715008020401,0.01025836169719696,0.7586682438850403,0.1994277983903885,0.17604383826255798,0.24464499950408936,0.4947010576725006,0.46092113852500916]},"inputHidden":{"rows":8,"columns":8,"weights":[0.6326472163200378,-1.2549705505371094,0.6564750075340271,1.674180030822754,-0.6281751394271851,-0.5016972422599792,-1.0038193464279175,1.3232072591781616,-1.292263150215149,0.3353576362133026,-0.15059785544872284,0.1416875272989273,-0.3622673749923706,-0.32777541875839233,-0.4615328907966614,0.41417622566223145,-0.6539934873580933,0.26389989256858826,0.03015010803937912,0.3039553165435791,-0.18464188277721405,-0.13094259798526764,0.2671126425266266,-0.028235670179128647,-0.0428628996014595,0.245737686753273,0.1263570934534073,0.6427682638168335,-0.28609734773635864,0.03804601728916168,-0.40176671743392944,-0.07389345020055771,0.45271092653274536,-0.07746584713459015,0.10120844841003418,0.1285412758588791,-0.13704153895378113,-0.1922726333141327,-0.5942926406860352,0.45874929428100586,-0.11940257251262665,0.03469981253147125,0.1257690042257309,0.042319316416978836,-0.13173794746398926,-0.23160545527935028,-0.1545628160238266,0.3800148665904999,-2.123229503631592,0.2072095423936844,-0.2779403030872345,-0.11655594408512115,-0.141152486205101,-0.07780477404594421,-1.1583536863327026,1.4383752346038818,0.6900400519371033,-0.18924298882484436,0.30868589878082275,0.2368152141571045,-0.215346559882164,-0.2566371262073517,-1.2290784120559692,0.5691441297531128]},"inputBias":{"rows":8,"columns":1,"weights":[-0.2575986981391907,-0.3425958752632141,-0.227076455950737,-0.41349905729293823,-0.5432124733924866,-0.5114613771438599,0.22712160646915436,1.838639736175537]},"forgetMatrix":{"rows":8,"columns":4,"weights":[0.18019507825374603,-1.1116154193878174,-1.7264002561569214,-2.095367670059204,0.09576735645532608,0.15453173220157623,-0.5517574548721313,-0.1902567744255066,0.2302234172821045,0.4449491798877716,0.15051017701625824,0.4583929777145386,0.3451009690761566,0.3956893980503082,0.5236600637435913,0.5456955432891846,0.446669340133667,0.5209804773330688,0.26180219650268555,0.5136889815330505,0.23072007298469543,0.4510892331600189,0.14049850404262543,0.40380096435546875,-0.30128395557403564,-0.0875663161277771,-0.3400900363922119,-0.26027655601501465,-1.2285523414611816,-1.072848916053772,0.6301662921905518,-0.8799659609794617]},"forgetHidden":{"rows":8,"columns":8,"weights":[1.15042245388031,-1.137200117111206,1.0321850776672363,0.8024654984474182,-0.7082808613777161,-0.6729804873466492,-0.7147117257118225,0.03125351667404175,1.418792724609375,-0.13558460772037506,0.299859881401062,0.1503710150718689,0.3063800036907196,0.3694164454936981,0.8049798011779785,0.1377355009317398,0.05684230849146843,0.10848995298147202,-0.07509250938892365,0.056897640228271484,0.07777213305234909,-0.08397313952445984,0.3323685824871063,0.4365874230861664,-0.11667004227638245,-0.03684624284505844,0.2637702226638794,0.38548341393470764,-0.6229120492935181,-0.470466673374176,-0.2646627128124237,0.8241245746612549,1.1528518199920654,0.12421884387731552,0.08826731145381927,0.19277243316173553,-0.06968638300895691,-0.09913677722215652,-1.100455403327942,0.6692705750465393,0.2006182223558426,0.1680753082036972,0.030644405633211136,-0.2794398069381714,0.11091998219490051,0.01482602022588253,-0.6822348237037659,0.1626131534576416,0.9175552725791931,1.0941051244735718,-1.2848222255706787,-0.87580806016922,0.8016139268875122,1.0370789766311646,-1.038070559501648,-0.1904817521572113,-0.07414404302835464,1.020923137664795,-0.5271116495132446,0.3635830283164978,0.519936740398407,0.9199772477149963,-0.5606091022491455,-0.012471798807382584]},"forgetBias":{"rows":8,"columns":1,"weights":[0,0,0,0,0,0,0,0]},"outputMatrix":{"rows":8,"columns":4,"weights":[0.956628680229187,0.13159024715423584,-0.7761987447738647,-1.133776068687439,0.3893089294433594,0.5466384291648865,0.7495481967926025,0.5440414547920227,0.32460734248161316,0.38245826959609985,0.6259660720825195,0.615278959274292,0.2853494882583618,0.4352758228778839,0.7193199396133423,0.561453104019165,0.4154941141605377,0.4433414041996002,0.6209339499473572,0.509235143661499,0.41458117961883545,0.5173550248146057,0.4787069261074066,0.5274115204811096,0.025780383497476578,-0.08550259470939636,0.6656444668769836,0.039810843765735626,-0.7176443934440613,-0.5674043297767639,0.7410814166069031,0.08537933975458145]},"outputHidden":{"rows":8,"columns":8,"weights":[0.9660053849220276,-1.5478352308273315,1.124042272567749,1.621659517288208,-1.0249483585357666,-0.8449265360832214,-1.1111807823181152,0.9050363302230835,0.28138360381126404,-0.0015984063502401114,0.1895972043275833,0.1834874302148819,-0.271869033575058,-0.18140225112438202,-0.09100987762212753,0.8962425589561462,0.271642804145813,0.002810388570651412,0.0022719206754118204,0.13917243480682373,-0.25052589178085327,-0.1698928028345108,0.10545682907104492,0.6770853996276855,1.2205125093460083,-0.0049042166210711,0.10380488634109497,0.4973885715007782,-0.40431687235832214,-0.19937574863433838,-0.24853858351707458,0.899754524230957,2.1431665420532227,-0.130624920129776,0.03630299121141434,0.08920004963874817,-0.11566226184368134,-0.20676882565021515,-0.8031553030014038,0.3766380846500397,1.1231621503829956,-0.014010760001838207,0.053324006497859955,-0.04470767453312874,-0.09650222957134247,-0.18143205344676971,-0.3810303807258606,0.4579342007637024,-2.0573959350585938,0.17409804463386536,-0.2976767122745514,-0.17282238602638245,-0.08590974658727646,-0.046716853976249695,-0.7175124287605286,1.5876374244689941,0.19707843661308289,0.5059203505516052,-0.4737197458744049,-0.38174548745155334,0.3075333535671234,0.585651695728302,-0.8879085183143616,0.2063135951757431]},"outputBias":{"rows":8,"columns":1,"weights":[-0.26426443457603455,-0.33472371101379395,-0.2149742990732193,-0.3829333782196045,-0.5433230996131897,-0.49492597579956055,0.21855661273002625,2.0680205821990967]},"cellActivationMatrix":{"rows":8,"columns":4,"weights":[0.028378212824463844,-0.14726628363132477,0.11282461881637573,-1.4823814630508423,-0.28749141097068787,-0.894892692565918,0.8206427097320557,-0.3414684236049652,-0.09703420847654343,0.3660179376602173,-0.25988873839378357,0.2466634064912796,-0.1399553418159485,0.058564942330121994,-0.2102586179971695,0.04664187133312225,-0.31367114186286926,-0.5242648124694824,-0.3091336488723755,-0.6821197271347046,-0.32861703634262085,-0.7445982694625854,0.019990811124444008,-0.7404365539550781,0.44964513182640076,-0.21697019040584564,-0.6471665501594543,-0.19441303610801697,0.19022168219089508,-0.23479053378105164,-0.19785118103027344,-0.4954204559326172]},"cellActivationHidden":{"rows":8,"columns":8,"weights":[0.10622739791870117,-0.6701499223709106,0.42394188046455383,0.49308499693870544,-0.8398565053939819,-0.7684546709060669,1.328630805015564,-0.8924103379249573,1.4675883054733276,-0.6525443196296692,-0.6321751475334167,-0.2804277837276459,-0.0972757637500763,-0.29948940873146057,-0.5185969471931458,0.673801839351654,-1.527742862701416,0.6910832524299622,-0.1878233700990677,0.5836015939712524,-0.5307217240333557,-0.05560619756579399,1.344251275062561,-0.5939685106277466,-0.6310213208198547,0.3300875425338745,0.050601527094841,0.657371997833252,-0.6402711272239685,-0.4830824136734009,-0.7352376580238342,-0.639049768447876,1.7507840394973755,-0.37045857310295105,0.03593939170241356,-0.17161862552165985,0.9091967940330505,0.5119827389717102,0.7963241338729858,0.5037621259689331,1.3247590065002441,0.09339236468076706,-0.22492335736751556,0.8646830320358276,-0.10102280229330063,-0.09342863410711288,0.5736836791038513,0.3563159704208374,-2.2607626914978027,-0.7472776174545288,0.5800155401229858,-0.5087636113166809,-0.022457683458924294,-0.5470180511474609,-0.7923727035522461,0.8628304600715637,1.2460095882415771,-0.2916523218154907,0.683901309967041,1.1016812324523926,-0.7816301584243774,-0.4534418284893036,-1.7785435914993286,-1.0666877031326294]},"cellActivationBias":{"rows":8,"columns":1,"weights":[0.5166858434677124,0.23303207755088806,0.05810336023569107,0.06743223965167999,0.21151962876319885,0.45134761929512024,-0.6305769085884094,1.249922275543213]}},{"inputMatrix":{"rows":8,"columns":8,"weights":[1.7478033304214478,0.7160479426383972,-0.35407981276512146,-0.5200726389884949,0.4401858448982239,0.4599597156047821,-2.1236886978149414,0.9970917105674744,-1.4199610948562622,0.12010408192873001,-0.05669604241847992,0.09308066219091415,-0.06333451718091965,0.27284371852874756,0.2655027210712433,-0.339058518409729,-1.4585405588150024,0.2556783854961395,-0.3427118957042694,-0.27004286646842957,-0.03522013872861862,-0.19636471569538116,-0.47132837772369385,0.15251483023166656,1.7723143100738525,-1.0011508464813232,1.341351866722107,0.385547935962677,0.30404508113861084,-0.08784358948469162,0.5393750071525574,0.6938555240631104,-1.2765086889266968,-0.45418643951416016,0.34090667963027954,0.274770051240921,-0.45079126954078674,-0.4316316545009613,-0.17288626730442047,-0.31309014558792114,0.8435559868812561,0.14339576661586761,-0.18089453876018524,-0.15385115146636963,-0.06285666674375534,-0.16013634204864502,-0.7919551730155945,1.1702830791473389,-0.1737324297428131,0.1509341299533844,-0.14656372368335724,0.011799276806414127,0.1587418019771576,0.3629143238067627,0.1479860246181488,-0.06494902819395065,-1.792574167251587,-0.4230649471282959,0.13777582347393036,0.0006407967302948236,-0.351895272731781,-0.37481245398521423,-0.4971918761730194,-0.2817831039428711]},"inputHidden":{"rows":8,"columns":8,"weights":[-1.48781156539917,0.3476414680480957,-0.2983090579509735,-0.34313124418258667,-0.13372288644313812,-1.221867322921753,0.1449872851371765,0.24519579112529755,-1.387748122215271,0.2941366136074066,-0.2603214681148529,0.4532010853290558,-0.4916191101074219,-0.9573875665664673,-0.02351306937634945,0.486285001039505,-1.6601728200912476,0.11660543829202652,-0.11056739091873169,0.3480445146560669,-0.24978433549404144,-1.2815301418304443,0.09059818089008331,0.23147498071193695,0.7648710608482361,-0.5217196941375732,0.4727100431919098,-3.7986011505126953,0.13780316710472107,1.181022047996521,0.10545938462018967,-0.07131987810134888,-0.8997114896774292,-0.10942838340997696,0.14693455398082733,-0.0508885458111763,0.024222923442721367,-0.8081441521644592,-0.24845774471759796,0.08766232430934906,-0.993301510810852,0.32649001479148865,-0.324289470911026,0.15460792183876038,0.11558530479669571,-0.5032196044921875,0.1566614955663681,-0.15492622554302216,-0.9880113005638123,0.2123042196035385,-0.259806752204895,0.2490437775850296,-0.37271246314048767,-0.4107503592967987,0.07099445164203644,0.38728100061416626,-1.2372742891311646,0.024610165506601334,0.04967418685555458,0.3846242129802704,0.009487522765994072,-0.9242872595787048,-0.05624562129378319,0.11442097276449203]},"inputBias":{"rows":8,"columns":1,"weights":[-0.4368564188480377,-0.2655886709690094,-0.045063167810440063,0.004937932826578617,-0.46605348587036133,1.32912015914917,-0.5681515336036682,-0.32886913418769836]},"forgetMatrix":{"rows":8,"columns":8,"weights":[0.6809808015823364,0.6526392102241516,-0.26292118430137634,-0.6531325578689575,0.2551518976688385,0.24318085610866547,0.685211181640625,-0.20132958889007568,-1.441214919090271,-0.04903556406497955,-0.20558656752109528,-0.04461824893951416,0.05221329256892204,0.23452182114124298,0.28152456879615784,-0.3623945415019989,-0.9314925074577332,0.21456722915172577,-0.2275085300207138,-0.30401164293289185,-0.09797954559326172,-0.10135028511285782,-0.42839309573173523,-0.3329316973686218,-1.822313666343689,3.0056824684143066,-4.043239593505859,-2.275954008102417,2.9014713764190674,2.366788625717163,-1.5036157369613647,0.44563013315200806,-0.7137964963912964,-0.0873023197054863,0.018244853243231773,-0.12335934489965439,0.07918450236320496,-0.04773109406232834,0.24145478010177612,-0.6624743938446045,0.6415076851844788,-0.20457468926906586,-0.7102010846138,-1.1394098997116089,1.0622460842132568,0.20767848193645477,-2.4758341312408447,0.16409821808338165,-0.3557882308959961,0.03038749471306801,0.0014771295245736837,-0.042573608458042145,0.1621595323085785,0.1661580204963684,0.15418170392513275,-0.10892069339752197,-0.818895697593689,0.0013279127888381481,-0.041805919259786606,-0.17398177087306976,0.14061667025089264,0.03666697070002556,0.08248243480920792,-0.8090951442718506]},"forgetHidden":{"rows":8,"columns":8,"weights":[-0.1901845932006836,0.4541005790233612,-0.5062695741653442,-0.42413821816444397,-0.22642792761325836,-0.3425178825855255,0.15847422182559967,0.4869808256626129,-1.1997638940811157,0.14159737527370453,-0.14462101459503174,-0.11001458019018173,-0.32019495964050293,-0.4005848467350006,-0.060921940952539444,0.4220844805240631,-1.1644855737686157,0.15531080961227417,-0.06100662052631378,0.20939764380455017,-0.12154170125722885,-0.409645140171051,0.034241460263729095,0.19354483485221863,-1.9541631937026978,0.15601134300231934,-0.27610236406326294,0.48674431443214417,-1.5746365785598755,-1.1239007711410522,-0.03855413198471069,1.887730360031128,-0.31892889738082886,0.3910177946090698,-0.30423739552497864,-0.09360573440790176,-0.3761076331138611,0.1258043646812439,0.1742246001958847,0.27726343274116516,0.8779123425483704,1.3846920728683472,-1.3751624822616577,0.9220351576805115,-0.015850896015763283,1.0663437843322754,1.2189245223999023,0.03285364806652069,-0.7233487963676453,0.023811601102352142,-0.09426386654376984,-0.15223358571529388,-0.19452190399169922,-0.18136043846607208,0.0458371564745903,0.21492667496204376,-0.1981789916753769,0.3786105215549469,-0.4255697727203369,-0.43702778220176697,-0.2180365025997162,0.4808865189552307,0.24982623755931854,0.23007766902446747]},"forgetBias":{"rows":8,"columns":1,"weights":[0,0,0,0,0,0,0,0]},"outputMatrix":{"rows":8,"columns":8,"weights":[1.6790233850479126,0.8736686706542969,-0.6022502183914185,-0.7292855381965637,0.5969843864440918,0.4986109137535095,-0.9554114937782288,1.1097737550735474,-1.0275942087173462,0.00011823497334262356,-0.0014501136029139161,0.12135837972164154,-0.20338954031467438,0.09369559586048126,0.1390601545572281,-0.30667197704315186,0.21441170573234558,0.02507282979786396,-0.03904320299625397,-0.1816280335187912,-0.19048291444778442,-0.4139504134654999,0.1942005157470703,-0.2471884787082672,3.7096123695373535,0.10249028354883194,0.12584662437438965,0.29933813214302063,-0.48343753814697266,-0.3338243067264557,-1.1548101902008057,2.284971237182617,-0.9667503833770752,-0.14381887018680573,0.19930583238601685,0.09197556227445602,-0.18441815674304962,-0.11903531849384308,-0.01886090263724327,-0.39634066820144653,1.2804555892944336,-0.5479217171669006,0.05087805911898613,-0.2580057680606842,0.5035278797149658,0.1844967156648636,0.8656017780303955,0.7278059720993042,-0.4102492034435272,0.07247333228588104,-0.013260705396533012,0.07841494679450989,-0.015166521072387695,0.16677942872047424,0.011382083408534527,-0.10101126879453659,-1.1412479877471924,-0.2458825558423996,0.09417121112346649,0.06941995769739151,-0.15078356862068176,-0.30193784832954407,-0.01370918471366167,-0.28742921352386475]},"outputHidden":{"rows":8,"columns":8,"weights":[-1.494470238685608,0.4621255695819855,-0.39058414101600647,-0.4686543047428131,-0.3083987832069397,-1.3496531248092651,0.239790141582489,0.3041546046733856,-1.15726900100708,0.045863911509513855,-0.018222063779830933,0.03787821903824806,-0.2390064150094986,-0.7194947004318237,0.001587015576660633,0.1939888596534729,-0.8308557271957397,0.18066561222076416,-0.0819796770811081,0.013397250324487686,0.0584368035197258,-0.4810798168182373,0.08720465004444122,0.02288065105676651,-0.504325807094574,-0.32581618428230286,0.1661873161792755,-0.8261731266975403,-0.12364862859249115,-1.2087844610214233,-0.0231745894998312,0.162288635969162,-0.8392309546470642,0.09460631012916565,0.006587835028767586,-0.2561068832874298,-0.16081874072551727,-0.6120712757110596,0.022004183381795883,0.1195683553814888,-0.12729518115520477,0.8361861109733582,-0.8718856573104858,0.23297931253910065,-0.33097144961357117,0.15947186946868896,0.6141038537025452,0.3444555103778839,-0.6186537146568298,0.03971436992287636,-0.19841426610946655,0.0015071405796334147,-0.22480911016464233,-0.21673764288425446,0.1528845727443695,0.08512710779905319,-0.8302980065345764,0.06310229748487473,-0.09626055508852005,0.006778049282729626,0.0712512955069542,-0.63918536901474,-0.10548243671655655,0.10029454529285431]},"outputBias":{"rows":8,"columns":1,"weights":[-0.4493172764778137,-0.26959678530693054,-0.05275866016745567,-0.0997694805264473,-0.46106284856796265,1.472810983657837,-0.5630688667297363,-0.3407592475414276]},"cellActivationMatrix":{"rows":8,"columns":8,"weights":[-0.8469967842102051,-0.2647247612476349,-0.10366769134998322,-0.2555374503135681,0.1377522200345993,-0.05375035107135773,0.5454983711242676,0.4183068871498108,0.8721963167190552,0.07701611518859863,-0.20989426970481873,-0.3504287898540497,0.6319476962089539,0.3737594783306122,0.020439988002181053,-0.2779567837715149,-0.1927061378955841,-0.09488950669765472,-0.03674090653657913,0.1225615069270134,-0.2479112148284912,-0.29621317982673645,-0.05339464172720909,0.4130745828151703,2.0762250423431396,-0.28140899538993835,0.15999509394168854,0.8917039036750793,-0.03593430295586586,-0.04028283804655075,-0.41731026768684387,0.34850597381591797,0.7271223068237305,-0.4775368273258209,0.44821542501449585,0.7434497475624084,-1.530862808227539,-0.8174205422401428,0.2513398826122284,0.0608370341360569,-0.29526999592781067,0.46668708324432373,-0.43122178316116333,-0.43378961086273193,0.1981404572725296,0.33796584606170654,0.6257308125495911,-0.7433957457542419,0.2493433952331543,0.21253538131713867,-0.17635558545589447,-0.25520291924476624,0.4055942893028259,0.22109781205654144,-0.05190499499440193,-0.5062038898468018,-1.2057678699493408,0.6341695785522461,-0.3794257938861847,-0.5050552487373352,1.1026930809020996,0.7183973789215088,0.19011211395263672,0.1199912279844284]},"cellActivationHidden":{"rows":8,"columns":8,"weights":[0.7209329605102539,0.7476792335510254,-0.5711369514465332,-0.19866175949573517,-0.5521007776260376,0.7837331891059875,0.6613926291465759,0.48898470401763916,0.625596821308136,0.6063510179519653,-0.40507742762565613,-1.1351838111877441,-0.23852458596229553,1.2233197689056396,0.5941725373268127,0.17056986689567566,-0.960665225982666,-0.4395296573638916,0.42166614532470703,0.9551217555999756,0.31190451979637146,-1.3555775880813599,-0.6093764305114746,-0.2186850607395172,0.5524474382400513,-0.45304954051971436,0.3486691117286682,1.0441303253173828,0.3470783531665802,0.0814547911286354,-0.4575212001800537,-0.20696398615837097,-0.05447731167078018,-0.5892250537872314,0.6196826696395874,-0.17251437902450562,0.24019329249858856,-0.19333921372890472,-0.4459041357040405,0.012324885465204716,0.3900738060474396,0.07107078284025192,-0.08758483827114105,-0.8692342042922974,-0.5194899439811707,-0.040362533181905746,0.005109370220452547,0.6154193878173828,0.9345877170562744,0.20308978855609894,-0.04255520552396774,-1.1273837089538574,0.02132261171936989,0.8371161818504333,0.2889353036880493,-0.055120740085840225,0.06501730531454086,0.6644672155380249,-0.6709572672843933,0.25224241614341736,-0.13035142421722412,0.06402314454317093,0.44055962562561035,-0.2123560905456543]},"cellActivationBias":{"rows":8,"columns":1,"weights":[0.2037651240825653,0.4707208573818207,-0.5887429714202881,0.5797436833381653,-0.029792215675115585,-1.1117441654205322,0.23798952996730804,-0.17519143223762512]}}],"outputConnector":{"rows":4,"columns":8,"weights":[0.2558908760547638,-0.2907004654407501,0.49436667561531067,0.8130550980567932,0.4254069924354553,0.14157037436962128,-0.10750582814216614,-0.35668879747390747,0.06645917147397995,-0.4681225121021271,0.12167788296937943,0.49918699264526367,0.3174569606781006,0.7335547804832458,-0.13811178505420685,-0.08604875952005386,0.04119851067662239,-0.4000087380409241,0.3691188097000122,-0.3355894684791565,0.5366352796554565,-0.6213370561599731,-0.14015832543373108,-0.4972691833972931,-0.19962085783481598,-0.03713827580213547,0.28740108013153076,-0.43852007389068604,0.0017718315357342362,0.800870954990387,0.08016719669103622,-0.03588758409023285]},"output":{"rows":4,"columns":1,"weights":[0.008428601548075676,0.6499892473220825,-0.23099923133850098,0.9911903738975525]},"inputLookup":{"open":0,"high":1,"low":2,"close":3},"inputLookupLength":4,"outputLookup":{"open":0,"high":1,"low":2,"close":3},"outputLookupLength":4}