{
    "type": "LSTMTimeStep",
    "options": {
        "inputSize": 1,
        "inputRange": 0,
        "hiddenLayers": [
            20
        ],
        "outputSize": 1,
        "decayRate": 0.999,
        "smoothEps": 1e-8,
        "regc": 0.000001,
        "clipval": 5,
        "maxPredictionLength": 100,
        "dataFormatter": {
            "indexTable": {},
            "characterTable": {},
            "characters": [],
            "specialIndexes": []
        }
    },
    "hiddenLayers": [
        {
            "inputMatrix": {
                "rows": 20,
                "columns": 1,
                "weights": [
                    -0.528264582157135,
                    -0.48179391026496887,
                    -0.3921912908554077,
                    -0.24175626039505005,
                    -0.48226267099380493,
                    0.833739161491394,
                    0.7995650172233582,
                    -0.5723103284835815,
                    -0.515194833278656,
                    -0.47336453199386597,
                    -0.47671398520469666,
                    -0.5100568532943726,
                    -0.5681346654891968,
                    0.880641758441925,
                    -0.38159215450286865,
                    -0.2471933513879776,
                    -0.46641403436660767,
                    0.6361832022666931,
                    -0.5091300010681152,
                    1.0119866132736206
                ]
            },
            "inputHidden": {
                "rows": 20,
                "columns": 20,
                "weights": [
                    -0.31269505620002747,
                    0.10271522402763367,
                    0.12129822373390198,
                    0.18698331713676453,
                    0.10883287340402603,
                    -0.19708409905433655,
                    0.6809074878692627,
                    -0.25243961811065674,
                    0.42202264070510864,
                    0.1240985095500946,
                    -0.25847703218460083,
                    0.21120260655879974,
                    -0.34396693110466003,
                    0.1575452834367752,
                    0.28491970896720886,
                    -0.24452091753482819,
                    0.13888894021511078,
                    -0.24762585759162903,
                    0.007657547015696764,
                    0.6998350620269775,
                    0.049288708716630936,
                    -0.18734537065029144,
                    0.1812100112438202,
                    0.1257074773311615,
                    -0.11456253379583359,
                    -0.44457000494003296,
                    0.6838348507881165,
                    0.06718476861715317,
                    0.2043927162885666,
                    -0.07301152497529984,
                    0.08576065301895142,
                    0.07290497422218323,
                    -0.2715827524662018,
                    -0.2558351457118988,
                    0.14657390117645264,
                    0.02895924635231495,
                    0.028963036835193634,
                    -0.17151424288749695,
                    0.18136774003505707,
                    0.5890315771102905,
                    0.4451495409011841,
                    -0.45346999168395996,
                    -0.4548276960849762,
                    -0.21147596836090088,
                    -0.35934609174728394,
                    -0.2770666182041168,
                    -0.1312902271747589,
                    0.43352624773979187,
                    -0.7017925381660461,
                    -0.5431182384490967,
                    0.4152142107486725,
                    -0.8102573156356812,
                    1.306390643119812,
                    0.6624928116798401,
                    -0.2479671984910965,
                    0.8066896200180054,
                    -0.573391854763031,
                    0.29238051176071167,
                    0.9709581732749939,
                    -0.2126912623643875,
                    0.22399146854877472,
                    -0.3264330327510834,
                    -0.37025004625320435,
                    -0.17825104296207428,
                    -0.07285561412572861,
                    -0.6611559391021729,
                    -0.12666043639183044,
                    0.10982143133878708,
                    -0.2525593936443329,
                    -0.3601239323616028,
                    0.2677931487560272,
                    -0.08336996287107468,
                    0.17218691110610962,
                    0.2376730740070343,
                    -0.22406668961048126,
                    0.25897571444511414,
                    -0.19272500276565552,
                    0.14099986851215363,
                    0.06327109783887863,
                    -0.046666469424963,
                    0.11318787187337875,
                    -0.08576706796884537,
                    0.16095319390296936,
                    0.2226431667804718,
                    -0.18056854605674744,
                    -0.10365601629018784,
                    -0.02017058990895748,
                    0.12761427462100983,
                    0.3085613548755646,
                    -0.08805765211582184,
                    0.08035054057836533,
                    -0.027726761996746063,
                    -0.1124148964881897,
                    0.3531190752983093,
                    0.1332317292690277,
                    0.05625208839774132,
                    -0.03256269916892052,
                    -0.16251470148563385,
                    0.11098837852478027,
                    0.3692692220211029,
                    -0.28543204069137573,
                    0.2147378772497177,
                    0.21474969387054443,
                    0.7929006218910217,
                    0.25259190797805786,
                    -0.49405980110168457,
                    0.13192804157733917,
                    -0.36649081110954285,
                    0.2835683226585388,
                    0.21011920273303986,
                    -0.27127474546432495,
                    0.4632759094238281,
                    -0.9677404761314392,
                    -0.8010051846504211,
                    0.3165787160396576,
                    -0.6899048686027527,
                    0.31092458963394165,
                    -0.36036309599876404,
                    -0.7127304673194885,
                    -0.005448437295854092,
                    -0.2738492786884308,
                    0.017465952783823013,
                    0.20461907982826233,
                    0.06703077256679535,
                    0.23372861742973328,
                    -0.30137959122657776,
                    -0.41311559081077576,
                    -0.29855406284332275,
                    0.0958046093583107,
                    0.06030390039086342,
                    -0.2069416642189026,
                    0.15378203988075256,
                    -0.56743323802948,
                    -0.3239094614982605,
                    0.0879116803407669,
                    -0.030067313462495804,
                    0.1818435788154602,
                    0.15128777921199799,
                    -0.3858758509159088,
                    -0.025586457923054695,
                    -0.040367595851421356,
                    -0.07771467417478561,
                    0.19357411563396454,
                    0.3038184344768524,
                    -0.08406089246273041,
                    -0.12721580266952515,
                    0.3542194962501526,
                    -0.03214772418141365,
                    0.3141367435455322,
                    -0.09978727996349335,
                    -0.07677337527275085,
                    0.08407218009233475,
                    -0.24321243166923523,
                    0.4085034430027008,
                    0.24772560596466064,
                    -0.0429036021232605,
                    0.05475679039955139,
                    -0.07190214097499847,
                    0.07780679315328598,
                    0.5566307306289673,
                    -0.4079805016517639,
                    0.12145053595304489,
                    0.033514589071273804,
                    0.09485504031181335,
                    0.16713985800743103,
                    0.06641177833080292,
                    0.5814054608345032,
                    -0.26726946234703064,
                    0.42642489075660706,
                    0.13604320585727692,
                    -0.23592609167099,
                    0.2475602775812149,
                    -0.38770416378974915,
                    0.3011651039123535,
                    0.2842380404472351,
                    -0.1763773113489151,
                    0.29246604442596436,
                    -0.33006730675697327,
                    -0.07670500129461288,
                    0.6855554580688477,
                    -0.04928550869226456,
                    -0.024124255403876305,
                    0.10938645899295807,
                    0.3150179982185364,
                    -0.08512365072965622,
                    -0.10713139921426773,
                    0.6158496737480164,
                    0.05387509986758232,
                    0.32128456234931946,
                    -0.10122675448656082,
                    -0.02846195176243782,
                    0.0812050849199295,
                    -0.2736911177635193,
                    -0.39352184534072876,
                    0.2888205051422119,
                    -0.12137492001056671,
                    0.051494721323251724,
                    -0.26425763964653015,
                    0.11988212168216705,
                    0.7774195075035095,
                    -0.029906392097473145,
                    -0.09495630860328674,
                    0.06082604452967644,
                    0.18762023746967316,
                    -0.10519597679376602,
                    -0.04519286006689072,
                    0.4022878110408783,
                    0.02336251176893711,
                    0.28015777468681335,
                    -0.03039817325770855,
                    -0.09554190933704376,
                    0.08547353744506836,
                    -0.1730753779411316,
                    0.12516185641288757,
                    0.21806414425373077,
                    -0.026449788361787796,
                    -0.039604343473911285,
                    -0.22022885084152222,
                    0.17210909724235535,
                    0.5848671793937683,
                    0.014341129921376705,
                    -0.0006733470363542438,
                    -0.14794865250587463,
                    0.2379450500011444,
                    -0.014021079987287521,
                    0.2775470018386841,
                    -0.05882580950856209,
                    0.037546154111623764,
                    0.2424561083316803,
                    -0.015454806387424469,
                    -0.007472045719623566,
                    0.03369951620697975,
                    -0.1823999434709549,
                    0.32711920142173767,
                    0.17655503749847412,
                    0.0667395070195198,
                    0.09447954595088959,
                    -0.21731312572956085,
                    0.08470185101032257,
                    0.571152925491333,
                    -0.18464311957359314,
                    -0.041504669934511185,
                    -0.13010959327220917,
                    0.3900872468948364,
                    -0.05837325006723404,
                    0.4967223107814789,
                    -0.1440741866827011,
                    -0.0978904664516449,
                    0.32410329580307007,
                    -0.012101263739168644,
                    -0.018052829429507256,
                    0.17795369029045105,
                    -0.30994731187820435,
                    0.7590191960334778,
                    0.16087760031223297,
                    -0.0062583028338849545,
                    0.1711965799331665,
                    -0.435957670211792,
                    0.04087317734956741,
                    0.44132688641548157,
                    -0.16389942169189453,
                    0.06693574041128159,
                    0.2562445402145386,
                    0.1916530877351761,
                    0.16352659463882446,
                    -0.05751762539148331,
                    -0.4753142297267914,
                    -0.30387967824935913,
                    0.21142353117465973,
                    0.13373710215091705,
                    -0.16598199307918549,
                    0.15630149841308594,
                    -0.3836362361907959,
                    0.49205055832862854,
                    0.04438890144228935,
                    -0.015868250280618668,
                    0.25489649176597595,
                    0.2670833468437195,
                    -0.6685247421264648,
                    -0.20065708458423615,
                    0.036786116659641266,
                    -0.24884362518787384,
                    -0.3035895526409149,
                    -0.12991681694984436,
                    0.05765607953071594,
                    -0.5762513875961304,
                    0.17375250160694122,
                    -0.0039551593363285065,
                    -0.13145434856414795,
                    -0.19621853530406952,
                    0.08276402950286865,
                    -0.20664596557617188,
                    0.4805528521537781,
                    0.4165232181549072,
                    0.004946401808410883,
                    0.30421093106269836,
                    -0.02953297272324562,
                    0.14503948390483856,
                    0.28001630306243896,
                    0.14637508988380432,
                    0.0499345064163208,
                    -0.0935116857290268,
                    -0.06646672636270523,
                    0.27833208441734314,
                    -0.08190328627824783,
                    -0.2391340732574463,
                    -0.22424064576625824,
                    -0.018446100875735283,
                    0.018494484946131706,
                    -0.08768197894096375,
                    0.10520236939191818,
                    -0.22019273042678833,
                    0.3132006824016571,
                    0.22635188698768616,
                    0.14536334574222565,
                    0.05155801400542259,
                    -0.037594400346279144,
                    -0.17003251612186432,
                    0.23890720307826996,
                    0.5862507224082947,
                    -0.09754577279090881,
                    -0.031107883900403976,
                    0.0037393609527498484,
                    0.3295547068119049,
                    -0.010738548822700977,
                    0.09423960745334625,
                    0.16138774156570435,
                    -0.043424174189567566,
                    0.29644662141799927,
                    -0.1016787588596344,
                    0.0361739806830883,
                    -0.03164338693022728,
                    -0.21118877828121185,
                    0.07988215237855911,
                    0.24751505255699158,
                    0.020117266103625298,
                    0.10189636051654816,
                    -0.21971647441387177,
                    0.04751311242580414,
                    0.6268365383148193,
                    -1.153334617614746,
                    0.22080884873867035,
                    1.0332541465759277,
                    3.638542890548706,
                    0.3307485580444336,
                    0.07722410559654236,
                    -1.0537433624267578,
                    -0.6519004106521606,
                    1.0687536001205444,
                    0.1813291758298874,
                    -0.6023818254470825,
                    0.5685490369796753,
                    -1.9908360242843628,
                    -0.11588729172945023,
                    0.6638937592506409,
                    -0.5718375444412231,
                    0.35047677159309387,
                    0.4878023862838745,
                    -1.466209053993225,
                    -0.7126540541648865,
                    0.03537555783987045,
                    0.01991439238190651,
                    -0.106614850461483,
                    0.3809729814529419,
                    -0.0828704684972763,
                    0.29197442531585693,
                    -0.6465089917182922,
                    0.025423528626561165,
                    0.282629132270813,
                    0.035019874572753906,
                    0.02960529923439026,
                    0.15031681954860687,
                    -0.17757295072078705,
                    1.10548734664917,
                    0.14963674545288086,
                    0.038993094116449356,
                    0.04584529623389244,
                    -0.0931914895772934,
                    0.09715664386749268,
                    0.17424899339675903,
                    -0.10540730506181717,
                    0.26533520221710205,
                    -0.10300066322088242,
                    -0.807641863822937,
                    0.2522095739841461,
                    -0.15438680350780487,
                    0.17177560925483704,
                    -0.19167694449424744,
                    -0.2894962430000305,
                    0.2657160758972168,
                    -0.08303568512201309,
                    -0.2462213635444641,
                    0.5236496925354004,
                    0.23397955298423767,
                    0.2990646958351135,
                    -0.05846564844250679,
                    -0.02103532664477825,
                    0.1003064513206482,
                    0.07373495399951935,
                    -0.2615625858306885
                ]
            },
            "inputBias": {
                "rows": 20,
                "columns": 1,
                "weights": [
                    -0.8359101414680481,
                    -1.1521698236465454,
                    -1.4724355936050415,
                    0.36734405159950256,
                    -1.0432041883468628,
                    0.45509859919548035,
                    0.059722479432821274,
                    -0.9403394460678101,
                    -0.5709365606307983,
                    -0.9418284296989441,
                    -0.9463904500007629,
                    -0.8275747299194336,
                    -0.11481340229511261,
                    0.9607937335968018,
                    -1.850446343421936,
                    -1.2324618101119995,
                    -0.9472165107727051,
                    0.11466290801763535,
                    -0.7028358578681946,
                    -0.08048877120018005
                ]
            },
            "forgetMatrix": {
                "rows": 20,
                "columns": 1,
                "weights": [
                    -0.6487529873847961,
                    -0.3710029423236847,
                    -0.3155010938644409,
                    -0.3381875455379486,
                    -0.29927417635917664,
                    0.5634532570838928,
                    0.35240069031715393,
                    -0.4940883219242096,
                    -0.6695865392684937,
                    -0.3859843611717224,
                    -0.4506774842739105,
                    -0.5430317521095276,
                    -0.553656816482544,
                    1.0580735206604004,
                    -0.2317855805158615,
                    -0.4920542240142822,
                    -0.39615094661712646,
                    0.4849696457386017,
                    -0.301581472158432,
                    0.6616343855857849
                ]
            },
            "forgetHidden": {
                "rows": 20,
                "columns": 20,
                "weights": [
                    -0.06330949068069458,
                    -0.0012610128615051508,
                    -0.03342266380786896,
                    0.1327531933784485,
                    -0.040381673723459244,
                    -0.2617892026901245,
                    -0.2893120050430298,
                    -0.08450470864772797,
                    0.029274674132466316,
                    0.03663976490497589,
                    -0.09186682105064392,
                    0.08092735707759857,
                    -0.09317304193973541,
                    0.24411767721176147,
                    -0.0067075942642986774,
                    0.03725345805287361,
                    0.12567581236362457,
                    0.20850886404514313,
                    -0.023353831842541695,
                    -0.28568586707115173,
                    0.2364620417356491,
                    -0.2351471334695816,
                    0.10186664760112762,
                    0.11625970900058746,
                    -0.2689690589904785,
                    -0.5846185088157654,
                    -0.30247974395751953,
                    0.16294004023075104,
                    -0.021713700145483017,
                    -0.27208948135375977,
                    0.22949229180812836,
                    -0.10322273522615433,
                    0.07394114136695862,
                    0.3230268061161041,
                    -0.09040901809930801,
                    0.18328054249286652,
                    -0.2177456021308899,
                    0.3129750192165375,
                    0.20273686945438385,
                    -0.13828828930854797,
                    -0.027622560039162636,
                    0.0270196832716465,
                    -0.0436505563557148,
                    0.1595182716846466,
                    0.02705937810242176,
                    -0.2736532390117645,
                    -0.13581779599189758,
                    -0.04275226220488548,
                    0.0009169721743091941,
                    -0.039653949439525604,
                    0.02733704447746277,
                    -0.04100218787789345,
                    0.005944509990513325,
                    0.4901929795742035,
                    0.06574086099863052,
                    0.04846838489174843,
                    0.06153598427772522,
                    0.27041125297546387,
                    -0.04419998824596405,
                    -0.46278396248817444,
                    -0.2665764391422272,
                    0.1443527340888977,
                    0.12680841982364655,
                    0.6091752648353577,
                    0.05062026530504227,
                    -0.15851512551307678,
                    -0.08570302277803421,
                    -0.14500939846038818,
                    0.1771530658006668,
                    0.15641535818576813,
                    -0.24880051612854004,
                    0.0512886717915535,
                    -0.07081811875104904,
                    0.2319648116827011,
                    0.08621715009212494,
                    -0.1319146603345871,
                    0.10435198992490768,
                    -0.8852327466011047,
                    0.050354212522506714,
                    -0.5015064477920532,
                    0.08420383930206299,
                    -0.08304178714752197,
                    -0.03945736959576607,
                    -0.02481125295162201,
                    -0.29183563590049744,
                    -0.41873687505722046,
                    -0.4670295715332031,
                    0.11450266093015671,
                    0.014806554652750492,
                    -0.22193311154842377,
                    0.19975924491882324,
                    0.009982523508369923,
                    -0.039706453680992126,
                    0.44832494854927063,
                    -0.02680608071386814,
                    -0.04531093314290047,
                    -0.1455041766166687,
                    0.41685613989830017,
                    0.16175439953804016,
                    -0.3027586042881012,
                    0.17590895295143127,
                    -0.7261099219322205,
                    -0.6701056361198425,
                    -1.3860312700271606,
                    -0.0385899692773819,
                    -0.47103509306907654,
                    -1.2177373170852661,
                    -0.007632793392986059,
                    -0.23398283123970032,
                    -0.3955504894256592,
                    0.14412322640419006,
                    -0.047056812793016434,
                    -0.27984800934791565,
                    2.1934239864349365,
                    -1.028373122215271,
                    0.6773567199707031,
                    -0.25487571954727173,
                    1.0673800706863403,
                    -0.8134446144104004,
                    -0.769011914730072,
                    -0.6074703335762024,
                    0.9246138334274292,
                    0.700985848903656,
                    0.9761112332344055,
                    0.3464132249355316,
                    0.2448892444372177,
                    -1.0233947038650513,
                    -0.5126567482948303,
                    0.5403666496276855,
                    0.8305932283401489,
                    -0.5715014338493347,
                    0.3415639400482178,
                    -0.24328239262104034,
                    3.53989577293396,
                    0.6128624081611633,
                    -0.25675612688064575,
                    0.5568699836730957,
                    0.8819986581802368,
                    -0.5172049403190613,
                    -0.7671990394592285,
                    0.1343206912279129,
                    -0.0450860857963562,
                    -0.020385459065437317,
                    -0.030455496162176132,
                    -0.11953365802764893,
                    -0.4110303521156311,
                    -0.29521340131759644,
                    0.06179923191666603,
                    0.03138860687613487,
                    -0.11283532530069351,
                    0.08094855397939682,
                    -0.057448673993349075,
                    0.01001730840653181,
                    0.3739061653614044,
                    -0.05920508876442909,
                    0.022514784708619118,
                    -0.09433746337890625,
                    0.36367517709732056,
                    0.15361063182353973,
                    -0.3182596266269684,
                    -0.1118612214922905,
                    0.10879141837358475,
                    0.01599978655576706,
                    0.05330289900302887,
                    0.04623013734817505,
                    -0.22219716012477875,
                    -0.34437230229377747,
                    -0.06961647421121597,
                    0.07002303004264832,
                    0.17537936568260193,
                    -0.09086040407419205,
                    0.10624806582927704,
                    -0.12673018872737885,
                    0.2620989680290222,
                    0.05125231295824051,
                    -0.03224965184926987,
                    0.16320668160915375,
                    0.2463877946138382,
                    0.032470233738422394,
                    -0.38921216130256653,
                    0.10764631628990173,
                    -0.13904838263988495,
                    0.00198134733363986,
                    0.07133680582046509,
                    -0.13370667397975922,
                    -0.43121394515037537,
                    -0.3905773162841797,
                    0.043169859796762466,
                    0.17776766419410706,
                    -0.07933612912893295,
                    0.08491609990596771,
                    0.038885630667209625,
                    -0.13816550374031067,
                    0.3774951994419098,
                    0.03681829571723938,
                    0.03559117019176483,
                    -0.03252870962023735,
                    0.4491844177246094,
                    0.11417531967163086,
                    -0.24803979694843292,
                    0.001642871182411909,
                    -0.10969160497188568,
                    0.0032333889976143837,
                    0.04625989869236946,
                    -0.13866400718688965,
                    -0.3548120856285095,
                    -0.4085148572921753,
                    0.1137213185429573,
                    0.10649153590202332,
                    -0.028055408969521523,
                    0.04332715645432472,
                    0.09050371497869492,
                    -0.05851477384567261,
                    0.3512217402458191,
                    0.04738054424524307,
                    0.02763735130429268,
                    -0.07998686283826828,
                    0.41017869114875793,
                    0.0662732720375061,
                    -0.3333659768104553,
                    -0.09076783061027527,
                    0.10020918399095535,
                    0.031018290668725967,
                    0.10652162879705429,
                    0.006951846182346344,
                    -0.14276185631752014,
                    -0.31599321961402893,
                    0.039004091173410416,
                    0.05811568722128868,
                    0.0509178563952446,
                    -0.019405415281653404,
                    0.1703232228755951,
                    -0.06962531805038452,
                    0.5502413511276245,
                    -0.015548069961369038,
                    0.012817160226404667,
                    0.046200644224882126,
                    0.2494494616985321,
                    -0.009862442500889301,
                    -0.1619962602853775,
                    -0.10676471143960953,
                    -0.03756691515445709,
                    0.03182579576969147,
                    0.16781534254550934,
                    -0.03335665911436081,
                    0.29978206753730774,
                    -0.45517584681510925,
                    -0.11144694685935974,
                    0.11570676416158676,
                    0.08993066847324371,
                    -0.1397174894809723,
                    0.1301223635673523,
                    -0.14046113193035126,
                    0.6935826539993286,
                    0.103899285197258,
                    -0.060574423521757126,
                    0.03716922178864479,
                    -0.1590861976146698,
                    -0.08818552643060684,
                    -0.07450217008590698,
                    -0.3309362828731537,
                    0.5281928777694702,
                    0.6720756888389587,
                    0.501300036907196,
                    0.1874127984046936,
                    -0.09344891458749771,
                    -0.6980566382408142,
                    -0.26732075214385986,
                    0.3342289328575134,
                    0.269449919462204,
                    -0.3189392387866974,
                    0.05393492802977562,
                    -0.018818387761712074,
                    0.9513920545578003,
                    1.0220054388046265,
                    -0.26120275259017944,
                    0.18546044826507568,
                    0.6755045652389526,
                    -0.04256537929177284,
                    -0.6543741226196289,
                    -0.0077459258027374744,
                    0.0434064120054245,
                    0.02887754701077938,
                    0.20059794187545776,
                    -0.004245581105351448,
                    -0.41254764795303345,
                    0.20214416086673737,
                    -0.07144343852996826,
                    0.05040109157562256,
                    -0.00563922431319952,
                    -0.07691194862127304,
                    -0.04738028347492218,
                    0.028289593756198883,
                    0.4989238679409027,
                    0.0458594374358654,
                    -0.1021190881729126,
                    -0.012157975696027279,
                    0.30213913321495056,
                    0.040288276970386505,
                    -0.16658511757850647,
                    0.031034547835588455,
                    0.06351296603679657,
                    0.09200920909643173,
                    0.10480443388223648,
                    0.014530976302921772,
                    -0.23317895829677582,
                    -0.46362531185150146,
                    -0.04010673239827156,
                    0.06385408341884613,
                    0.07465441524982452,
                    -0.0755898728966713,
                    -0.021676579490303993,
                    0.06883344799280167,
                    0.35404613614082336,
                    0.04474707320332527,
                    -0.24727438390254974,
                    0.04992237687110901,
                    0.20447348058223724,
                    0.00025030129472725093,
                    -0.09328511357307434,
                    0.029349463060498238,
                    -0.003884669626131654,
                    -0.05391582474112511,
                    0.03726692870259285,
                    -0.09537453949451447,
                    -0.33378902077674866,
                    -0.4195413589477539,
                    0.017195381224155426,
                    0.09092972427606583,
                    -0.019716337323188782,
                    0.01827113702893257,
                    -0.004516687709838152,
                    -0.1072399839758873,
                    0.35838639736175537,
                    -0.041584279388189316,
                    0.031245965510606766,
                    -0.00048551918007433414,
                    0.39072275161743164,
                    0.10095807909965515,
                    -0.3059578537940979,
                    -1.0361849069595337,
                    0.8489065170288086,
                    1.210199236869812,
                    1.6628952026367188,
                    0.6236576437950134,
                    -0.2030518501996994,
                    -1.0827386379241943,
                    -0.9248234629631042,
                    1.1592755317687988,
                    0.7110463380813599,
                    -0.868541419506073,
                    0.4891492426395416,
                    -1.1104350090026855,
                    2.8496620655059814,
                    1.0571762323379517,
                    -0.5301429033279419,
                    0.6637839078903198,
                    1.2556461095809937,
                    -0.8698039650917053,
                    -0.6353169083595276,
                    0.15139780938625336,
                    -0.0638909861445427,
                    -0.011210274882614613,
                    0.027615036815404892,
                    -0.07235504686832428,
                    0.024258533492684364,
                    -0.3006291687488556,
                    0.022331437095999718,
                    0.06571583449840546,
                    -0.04866999015212059,
                    0.14050035178661346,
                    -0.00885962788015604,
                    0.016557971015572548,
                    0.5864314436912537,
                    0.05041489750146866,
                    0.021041175350546837,
                    -0.012535871006548405,
                    -0.007879264652729034,
                    0.09086371213197708,
                    -0.3744150400161743,
                    -1.0872763395309448,
                    0.9074969291687012,
                    1.206005573272705,
                    1.0219929218292236,
                    0.794752299785614,
                    -0.03372512012720108,
                    0.3925676941871643,
                    -0.9385223984718323,
                    0.9243587851524353,
                    0.633141040802002,
                    -0.8733510971069336,
                    0.8685579895973206,
                    -1.3516253232955933,
                    -0.21437636017799377,
                    1.4579805135726929,
                    -1.369797945022583,
                    0.7267409563064575,
                    -0.20037780702114105,
                    -1.1628265380859375,
                    -0.3210952877998352
                ]
            },
            "forgetBias": {
                "rows": 20,
                "columns": 1,
                "weights": [
                    0,
                    0,
                    0,
                    0,
                    0,
                    0,
                    0,
                    0,
                    0,
                    0,
                    0,
                    0,
                    0,
                    0,
                    0,
                    0,
                    0,
                    0,
                    0,
                    0
                ]
            },
            "outputMatrix": {
                "rows": 20,
                "columns": 1,
                "weights": [
                    -0.5162143111228943,
                    -0.3874679505825043,
                    -0.3762412667274475,
                    -0.23209622502326965,
                    -0.42502647638320923,
                    0.8347111940383911,
                    0.771739661693573,
                    -0.4581232964992523,
                    -0.5716876983642578,
                    -0.45509371161460876,
                    -0.4928043782711029,
                    -0.5022808313369751,
                    -0.6019562482833862,
                    0.8585271239280701,
                    -0.43829455971717834,
                    -0.37727323174476624,
                    -0.4864317774772644,
                    0.60666424036026,
                    -0.49483954906463623,
                    0.9301268458366394
                ]
            },
            "outputHidden": {
                "rows": 20,
                "columns": 20,
                "weights": [
                    -0.29571640491485596,
                    0.07474777847528458,
                    0.1087050512433052,
                    0.2171735316514969,
                    0.1269570291042328,
                    -0.22049985826015472,
                    0.6159449219703674,
                    -0.18378707766532898,
                    0.3956303894519806,
                    0.13965252041816711,
                    -0.17764726281166077,
                    0.220398411154747,
                    -0.3869858682155609,
                    0.2297903597354889,
                    0.3270424008369446,
                    -0.22448427975177765,
                    0.20746776461601257,
                    -0.11609286069869995,
                    -0.07664234936237335,
                    0.6885400414466858,
                    -0.030170543119311333,
                    -0.20843182504177094,
                    0.07557062059640884,
                    0.07067736983299255,
                    -0.24735751748085022,
                    -0.4141760468482971,
                    0.5828827023506165,
                    0.0783209279179573,
                    0.20025140047073364,
                    -0.10557152330875397,
                    -0.009069442749023438,
                    -0.03516816347837448,
                    -0.2774519920349121,
                    -0.30242428183555603,
                    0.17653675377368927,
                    0.021967636421322823,
                    0.036261484026908875,
                    -0.1714475452899933,
                    0.22347570955753326,
                    0.7422794103622437,
                    0.4337714612483978,
                    -0.5907911658287048,
                    -0.49576377868652344,
                    -0.269422322511673,
                    -0.27782824635505676,
                    -0.1907012015581131,
                    -0.0377495102584362,
                    0.37483519315719604,
                    -0.6195992827415466,
                    -0.4381108283996582,
                    0.47322484850883484,
                    -0.7417184114456177,
                    1.2790558338165283,
                    0.5849238038063049,
                    -0.36897194385528564,
                    0.9334741234779358,
                    -0.5581284165382385,
                    0.31037816405296326,
                    0.9644282460212708,
                    -0.16395652294158936,
                    0.2797175645828247,
                    -0.35258954763412476,
                    -0.4354132413864136,
                    -0.06176961585879326,
                    0.04346681758761406,
                    -0.6232958436012268,
                    -0.1682019829750061,
                    0.13399985432624817,
                    -0.3556344509124756,
                    -0.2837997376918793,
                    0.21122290194034576,
                    -0.06090698391199112,
                    0.15634213387966156,
                    0.28672924637794495,
                    -0.12521123886108398,
                    0.31360748410224915,
                    -0.18945243954658508,
                    0.09388568252325058,
                    0.08928866684436798,
                    0.04136379435658455,
                    0.008663936518132687,
                    -0.11971068382263184,
                    0.08934956043958664,
                    0.35144683718681335,
                    -0.1167880967259407,
                    -0.03495243191719055,
                    -0.11631175875663757,
                    0.10664515197277069,
                    0.22730350494384766,
                    -0.13110896944999695,
                    0.07263723760843277,
                    0.07143411040306091,
                    -0.15360619127750397,
                    0.42512282729148865,
                    0.13310270011425018,
                    0.05159948021173477,
                    -0.06643106788396835,
                    -0.09649345278739929,
                    0.12494251877069473,
                    0.3595938980579376,
                    -0.3591312766075134,
                    0.18957099318504333,
                    -0.031467508524656296,
                    0.025180412456393242,
                    0.24259468913078308,
                    -0.2431035339832306,
                    -0.2687542736530304,
                    -0.197327122092247,
                    0.4212013781070709,
                    0.2004779428243637,
                    -0.24453359842300415,
                    0.49074193835258484,
                    -1.190201997756958,
                    -0.25363582372665405,
                    -0.058750297874212265,
                    -0.6002288460731506,
                    0.23125925660133362,
                    -0.1320100724697113,
                    -0.6785182356834412,
                    -0.3076343536376953,
                    -0.3332614302635193,
                    0.22247378528118134,
                    0.502516508102417,
                    0.4394347369670868,
                    0.1819235235452652,
                    -0.34570568799972534,
                    -0.4544474184513092,
                    -0.29403406381607056,
                    0.4403866231441498,
                    0.22668030858039856,
                    -0.26325058937072754,
                    0.3849915564060211,
                    -0.7910552620887756,
                    0.10502181947231293,
                    0.3927486538887024,
                    -0.16807663440704346,
                    0.38541799783706665,
                    0.5104004144668579,
                    -0.5581127405166626,
                    -0.35722294449806213,
                    -0.1037854552268982,
                    -0.07603541016578674,
                    0.07027847319841385,
                    0.3508068323135376,
                    -0.06278030574321747,
                    -0.1138078048825264,
                    0.25240761041641235,
                    -0.044571831822395325,
                    0.31762805581092834,
                    -0.027481455355882645,
                    0.0077396235428750515,
                    0.07315868139266968,
                    -0.25302428007125854,
                    0.4399529993534088,
                    0.32780730724334717,
                    -0.13719268143177032,
                    0.1161857321858406,
                    -0.1288640946149826,
                    0.12497228384017944,
                    0.4930647909641266,
                    -0.3768656551837921,
                    0.18707776069641113,
                    0.02338576316833496,
                    0.14730596542358398,
                    0.12005715817213058,
                    0.010714431293308735,
                    0.41599801182746887,
                    -0.24493905901908875,
                    0.43630048632621765,
                    0.13196255266666412,
                    -0.28505417704582214,
                    0.22740013897418976,
                    -0.27466264367103577,
                    0.3196110427379608,
                    0.2976350486278534,
                    -0.10269518196582794,
                    0.27252569794654846,
                    -0.2758404314517975,
                    -0.18055066466331482,
                    0.6003204584121704,
                    -0.005007539875805378,
                    -0.13065840303897858,
                    0.23999157547950745,
                    0.30340924859046936,
                    -0.11381660401821136,
                    -0.019856475293636322,
                    0.5847541093826294,
                    -0.014774364419281483,
                    0.32399803400039673,
                    -0.05740579962730408,
                    -0.05955394357442856,
                    -0.03859647363424301,
                    -0.303966224193573,
                    -0.4031558930873871,
                    0.17203792929649353,
                    0.009215089492499828,
                    -0.03770185261964798,
                    -0.2158939093351364,
                    0.13569805026054382,
                    0.6192310452461243,
                    -0.09791667014360428,
                    -0.04265478625893593,
                    0.10214249044656754,
                    0.24686439335346222,
                    -0.09176518023014069,
                    -0.05174487456679344,
                    0.3275911808013916,
                    -0.05342498794198036,
                    0.27653756737709045,
                    -0.10333625227212906,
                    0.033144742250442505,
                    0.06828512996435165,
                    -0.14484690129756927,
                    0.11623300611972809,
                    0.14335548877716064,
                    0.025350296869874,
                    -0.02181115560233593,
                    -0.13695542514324188,
                    0.08384937047958374,
                    0.5043089389801025,
                    -0.07876435667276382,
                    -0.0727672204375267,
                    -0.1276797205209732,
                    0.20015399158000946,
                    -0.09464380145072937,
                    0.4090096056461334,
                    -0.0351627878844738,
                    -0.08197911083698273,
                    0.3026798665523529,
                    -0.04057250916957855,
                    -0.07610411942005157,
                    0.03632260859012604,
                    -0.271221786737442,
                    0.3084380626678467,
                    0.1937735676765442,
                    0.09056076407432556,
                    0.038389887660741806,
                    -0.15796475112438202,
                    0.05455407872796059,
                    0.5634357333183289,
                    -0.15098313987255096,
                    0.06886418163776398,
                    -0.09395245462656021,
                    0.35709768533706665,
                    -0.07527248561382294,
                    0.48947271704673767,
                    -0.18381108343601227,
                    -0.02736452966928482,
                    0.3060286343097687,
                    -0.021263888105750084,
                    -0.11770856380462646,
                    0.11904756724834442,
                    -0.26907604932785034,
                    0.7145887613296509,
                    0.09440381079912186,
                    0.021040208637714386,
                    0.022234775125980377,
                    -0.4673713147640228,
                    0.05816611647605896,
                    0.48668232560157776,
                    -0.5309457778930664,
                    0.3203409016132355,
                    0.4129742980003357,
                    0.9673261642456055,
                    0.40541666746139526,
                    0.2938370406627655,
                    -0.15506170690059662,
                    -0.403560996055603,
                    0.5195183157920837,
                    0.28032803535461426,
                    -0.451259046792984,
                    0.3930850327014923,
                    -0.5666859149932861,
                    0.24893876910209656,
                    0.39532163739204407,
                    -0.2842143177986145,
                    0.37092313170433044,
                    0.039131179451942444,
                    -0.7338306903839111,
                    0.05062384158372879,
                    0.17794854938983917,
                    -0.22640949487686157,
                    -0.3939637243747711,
                    -0.12785907089710236,
                    0.04197918623685837,
                    -0.6946167945861816,
                    0.11501238495111465,
                    0.11368821561336517,
                    -0.15651313960552216,
                    -0.13182415068149567,
                    0.1160946637392044,
                    -0.16177672147750854,
                    0.4488305151462555,
                    0.44596433639526367,
                    0.00887307245284319,
                    0.231375053524971,
                    -0.07793031632900238,
                    0.1343533843755722,
                    0.40392059087753296,
                    0.16992223262786865,
                    0.08275099098682404,
                    0.010979879647493362,
                    -0.022743023931980133,
                    0.316394567489624,
                    -0.07162739336490631,
                    -0.5513634085655212,
                    -0.41841423511505127,
                    -0.03115791641175747,
                    0.03761787340044975,
                    -0.04464833065867424,
                    0.0729394182562828,
                    -0.20424067974090576,
                    0.2907368540763855,
                    0.1502913236618042,
                    0.05561956763267517,
                    0.07930327951908112,
                    -0.12640480697155,
                    -0.08570010960102081,
                    0.22698751091957092,
                    0.45447129011154175,
                    0.029551945626735687,
                    -0.13925574719905853,
                    0.04063910245895386,
                    0.27819058299064636,
                    -0.05329073965549469,
                    0.09585797041654587,
                    0.21717946231365204,
                    -0.02902723103761673,
                    0.2425871342420578,
                    -0.07324016839265823,
                    0.07702803611755371,
                    0.09291212260723114,
                    -0.23560993373394012,
                    0.11790426820516586,
                    0.12936332821846008,
                    -0.03898228332400322,
                    0.043066561222076416,
                    -0.15206976234912872,
                    0.1763686239719391,
                    0.484209269285202,
                    -1.0453777313232422,
                    0.6984699368476868,
                    1.0899112224578857,
                    2.4853198528289795,
                    0.5040383338928223,
                    -0.360893189907074,
                    -0.8017814755439758,
                    -0.7185052633285522,
                    1.0791590213775635,
                    0.5890777111053467,
                    -0.603647768497467,
                    0.530704915523529,
                    -1.2630947828292847,
                    0.3262208104133606,
                    0.9150938987731934,
                    -0.37337547540664673,
                    0.519723117351532,
                    0.5416651964187622,
                    -0.932145893573761,
                    -0.7079910635948181,
                    0.04122060537338257,
                    -0.16840773820877075,
                    0.011738181114196777,
                    0.38085684180259705,
                    -0.19154037535190582,
                    0.22704194486141205,
                    -0.7272365689277649,
                    0.07954804599285126,
                    0.29475709795951843,
                    -0.1020197719335556,
                    0.054201655089855194,
                    0.044775426387786865,
                    -0.1459643542766571,
                    1.1218833923339844,
                    0.03176106885075569,
                    0.020687449723482132,
                    -0.08931925147771835,
                    0.03992440924048424,
                    0.1925891637802124,
                    0.10423318296670914,
                    -0.39021509885787964,
                    0.4667065441608429,
                    0.517658531665802,
                    0.27219611406326294,
                    0.407731831073761,
                    -0.22090764343738556,
                    0.14469526708126068,
                    -0.3129669427871704,
                    0.33514395356178284,
                    0.40268927812576294,
                    -0.42621591687202454,
                    0.28584378957748413,
                    -0.20634059607982635,
                    0.14249885082244873,
                    1.067067265510559,
                    -0.5764507055282593,
                    0.3912496864795685,
                    0.03447940573096275,
                    -0.1393362581729889,
                    -0.23093844950199127
                ]
            },
            "outputBias": {
                "rows": 20,
                "columns": 1,
                "weights": [
                    -0.8415002822875977,
                    -1.1452531814575195,
                    -1.4801691770553589,
                    0.35134947299957275,
                    -1.0367417335510254,
                    0.42463168501853943,
                    -0.08515869826078415,
                    -0.934410572052002,
                    -0.585357129573822,
                    -0.9394540786743164,
                    -0.9480326175689697,
                    -0.8321160078048706,
                    -0.13647300004959106,
                    0.8372378349304199,
                    -1.8399925231933594,
                    -1.245866060256958,
                    -0.9481925368309021,
                    0.09575135260820389,
                    -0.7131402492523193,
                    -0.05574632063508034
                ]
            },
            "cellActivationMatrix": {
                "rows": 20,
                "columns": 1,
                "weights": [
                    0.3366844654083252,
                    -0.2109319120645523,
                    -0.5191973447799683,
                    -0.7097230553627014,
                    -0.25247833132743835,
                    0.4294362962245941,
                    0.06756894290447235,
                    0.2561034858226776,
                    -0.3030603528022766,
                    -0.2774004638195038,
                    0.26938027143478394,
                    -0.33181408047676086,
                    0.35089582204818726,
                    -0.29076558351516724,
                    -0.5908145904541016,
                    0.427166223526001,
                    -0.27527764439582825,
                    -0.21136002242565155,
                    0.3240552246570587,
                    0.6411001086235046
                ]
            },
            "cellActivationHidden": {
                "rows": 20,
                "columns": 20,
                "weights": [
                    -0.35364025831222534,
                    0.34993496537208557,
                    -0.05516066774725914,
                    -0.16833245754241943,
                    0.38737958669662476,
                    0.6549113392829895,
                    -0.07520677894353867,
                    -0.3530958890914917,
                    0.18330258131027222,
                    0.3775459825992584,
                    -0.42603644728660583,
                    0.3753119707107544,
                    -0.11457382142543793,
                    0.21798886358737946,
                    0.233965203166008,
                    -0.28607434034347534,
                    0.43148496747016907,
                    -0.4090648293495178,
                    -0.3891812860965729,
                    0.9542708396911621,
                    0.30252254009246826,
                    -0.36682000756263733,
                    0.2581859827041626,
                    -0.1404571235179901,
                    -0.25366148352622986,
                    -0.5581707954406738,
                    -0.1852119117975235,
                    0.3688350021839142,
                    -0.47049298882484436,
                    -0.2748698890209198,
                    0.41472429037094116,
                    -0.2978973686695099,
                    0.30340108275413513,
                    0.16395358741283417,
                    -0.28483664989471436,
                    0.31232181191444397,
                    -0.40989747643470764,
                    0.41883596777915955,
                    0.289765864610672,
                    -0.6767473816871643,
                    -1.087525725364685,
                    0.9135631918907166,
                    0.28919824957847595,
                    0.22185423970222473,
                    0.912898600101471,
                    -1.606692910194397,
                    0.22060836851596832,
                    -1.0836949348449707,
                    1.3206775188446045,
                    0.8694412112236023,
                    -1.133050560951233,
                    1.2159245014190674,
                    -1.5873124599456787,
                    -0.7495974898338318,
                    0.7402876019477844,
                    -1.2309424877166748,
                    1.1602532863616943,
                    0.7223382592201233,
                    -1.226576328277588,
                    0.7044165134429932,
                    -0.07866864651441574,
                    -0.16782769560813904,
                    0.05654197186231613,
                    0.1325371414422989,
                    -0.122059665620327,
                    -0.891238272190094,
                    0.6888066530227661,
                    0.07736935466527939,
                    0.984848141670227,
                    -0.1567966192960739,
                    0.04824984818696976,
                    0.4680650532245636,
                    -1.2674620151519775,
                    -0.22956788539886475,
                    0.1535489410161972,
                    -0.43759477138519287,
                    0.16912953555583954,
                    0.4399040639400482,
                    -0.08142251521348953,
                    -0.5630719065666199,
                    0.35085511207580566,
                    -0.4199211001396179,
                    0.23599132895469666,
                    -0.2962431013584137,
                    -0.339948445558548,
                    -0.6147124171257019,
                    0.1714460253715515,
                    0.3243919610977173,
                    -0.420196533203125,
                    -0.40959298610687256,
                    0.3214811086654663,
                    -0.31465592980384827,
                    0.34195542335510254,
                    -0.2775423228740692,
                    -0.38375627994537354,
                    0.3695916533470154,
                    -0.4348597228527069,
                    0.30513253808021545,
                    0.25943896174430847,
                    -0.4136351943016052,
                    -0.13718627393245697,
                    0.4596876800060272,
                    -0.3049132525920868,
                    -0.18716618418693542,
                    0.12305711209774017,
                    -0.34566372632980347,
                    -0.6952757239341736,
                    -0.07813340425491333,
                    0.16652554273605347,
                    0.5778681039810181,
                    -0.22410160303115845,
                    -0.08995853364467621,
                    0.6487100124359131,
                    1.2762525081634521,
                    -0.3962650001049042,
                    0.044537708163261414,
                    0.20148952305316925,
                    0.4911115765571594,
                    0.44803759455680847,
                    -0.5291645526885986,
                    -0.29998844861984253,
                    0.6399036645889282,
                    1.6867367029190063,
                    1.6343356370925903,
                    0.2946108281612396,
                    0.504452645778656,
                    -0.7493592500686646,
                    -0.30380865931510925,
                    0.5089324712753296,
                    0.5111442804336548,
                    -0.35348406434059143,
                    0.49887901544570923,
                    -0.5472758412361145,
                    1.1214723587036133,
                    1.3141323328018188,
                    -1.0349103212356567,
                    0.38349929451942444,
                    0.2202700972557068,
                    -0.422957181930542,
                    -0.5544139742851257,
                    -0.3391733467578888,
                    0.3153171241283417,
                    -0.16222994029521942,
                    0.16540825366973877,
                    0.39006489515304565,
                    0.6302967071533203,
                    -0.0828385204076767,
                    -0.35538846254348755,
                    0.4749041199684143,
                    0.36437395215034485,
                    -0.3832836449146271,
                    0.46024197340011597,
                    -0.3628753125667572,
                    0.2739972770214081,
                    0.42052069306373596,
                    -0.4232098162174225,
                    0.44628214836120605,
                    -0.33026161789894104,
                    -0.27724993228912354,
                    0.5407965183258057,
                    0.30662596225738525,
                    -0.3159697949886322,
                    0.1925583779811859,
                    -0.1846400648355484,
                    -0.3911011219024658,
                    -0.7600879669189453,
                    0.030871307477355003,
                    0.37673988938331604,
                    -0.595200777053833,
                    -0.35917550325393677,
                    0.42797303199768066,
                    -0.4522414803504944,
                    0.5996153950691223,
                    -0.07787558436393738,
                    -0.42178288102149963,
                    0.44007861614227295,
                    -0.33724522590637207,
                    0.4770149290561676,
                    0.27683043479919434,
                    -0.6408794522285461,
                    0.37616464495658875,
                    -0.3657337427139282,
                    0.16879834234714508,
                    -0.18444934487342834,
                    -0.2812654376029968,
                    -0.7803168296813965,
                    -0.11946173012256622,
                    0.2998245060443878,
                    -0.4328324794769287,
                    -0.44107407331466675,
                    0.4055294394493103,
                    -0.4713006317615509,
                    0.41167151927948,
                    0.01044411025941372,
                    -0.34204328060150146,
                    0.3538574278354645,
                    -0.3392166495323181,
                    0.594130277633667,
                    0.25811517238616943,
                    -0.8120175004005432,
                    -0.36196500062942505,
                    0.2926780581474304,
                    -0.2554222047328949,
                    0.2151898294687271,
                    0.3265385925769806,
                    0.6554651260375977,
                    -0.053748924285173416,
                    -0.36413881182670593,
                    0.3532433807849884,
                    0.4017082452774048,
                    -0.3272020220756531,
                    0.47175243496894836,
                    -0.2989712953567505,
                    0.20907847583293915,
                    0.3781757950782776,
                    -0.29882678389549255,
                    0.38041138648986816,
                    -0.4410037398338318,
                    -0.3266661465167999,
                    0.6286543607711792,
                    0.3235253691673279,
                    -0.40776076912879944,
                    0.1627175658941269,
                    -0.1730412244796753,
                    -0.3105405867099762,
                    -0.6911519765853882,
                    0.18319649994373322,
                    0.3666769564151764,
                    -0.3183077573776245,
                    -0.39694899320602417,
                    0.3817470669746399,
                    -0.49724704027175903,
                    0.23637090623378754,
                    -0.3036377429962158,
                    -0.41264608502388,
                    0.34689995646476746,
                    -0.4677962362766266,
                    0.22825801372528076,
                    0.36653846502304077,
                    -0.8859790563583374,
                    -0.41231122612953186,
                    0.3241826891899109,
                    -0.19474202394485474,
                    0.6140069961547852,
                    0.28911396861076355,
                    0.4924117922782898,
                    0.029448091983795166,
                    -0.40862369537353516,
                    0.42877277731895447,
                    0.39236924052238464,
                    -0.2770291864871979,
                    0.3609646260738373,
                    -0.3118557035923004,
                    0.23460319638252258,
                    0.40319177508354187,
                    -0.31582823395729065,
                    0.35112854838371277,
                    -0.24765644967556,
                    -0.3697868585586548,
                    0.6250061988830566,
                    1.3006281852722168,
                    -1.3883925676345825,
                    -2.975127935409546,
                    -2.1347663402557373,
                    -0.8983491063117981,
                    0.20258870720863342,
                    -0.05414137989282608,
                    1.0625015497207642,
                    -1.163755178451538,
                    -1.1223764419555664,
                    1.1606762409210205,
                    -1.0859533548355103,
                    1.230918049812317,
                    0.5239458680152893,
                    -2.2286689281463623,
                    1.4275410175323486,
                    -1.0454922914505005,
                    0.08818235248327255,
                    0.9856239557266235,
                    0.7229838371276855,
                    0.01760094054043293,
                    -0.16151206195354462,
                    0.07449454814195633,
                    0.017732158303260803,
                    -0.2152746021747589,
                    -0.6374388933181763,
                    0.11106882989406586,
                    0.1782645285129547,
                    0.5741123557090759,
                    -0.27827444672584534,
                    0.054236121475696564,
                    0.040594205260276794,
                    -0.7457132339477539,
                    -0.1705649495124817,
                    -0.010839876718819141,
                    -0.2584424614906311,
                    0.01817264035344124,
                    0.44361916184425354,
                    0.0561540462076664,
                    -0.879867672920227,
                    -0.21597400307655334,
                    0.2914237976074219,
                    -0.25121772289276123,
                    0.32776838541030884,
                    0.2831869423389435,
                    0.6452279090881348,
                    -0.2969072759151459,
                    -0.3539775311946869,
                    -0.10693280398845673,
                    0.30865243077278137,
                    -0.2085346281528473,
                    0.20882827043533325,
                    0.29963064193725586,
                    0.3423579931259155,
                    0.2351723164319992,
                    -0.27339980006217957,
                    0.34309983253479004,
                    -0.3669845461845398,
                    -0.1947057545185089,
                    0.575060248374939,
                    0.4202567934989929,
                    -0.3602319061756134,
                    0.19793953001499176,
                    -0.26207059621810913,
                    -0.32180753350257874,
                    -0.7520163059234619,
                    0.05980311334133148,
                    0.2985118627548218,
                    -0.4832215905189514,
                    -0.373883992433548,
                    0.317389577627182,
                    -0.37295210361480713,
                    0.45202577114105225,
                    -0.1281905621290207,
                    -0.42385268211364746,
                    0.39808130264282227,
                    -0.303615003824234,
                    0.43638506531715393,
                    0.25878584384918213,
                    -0.4965573251247406,
                    0.6403818726539612,
                    -1.1424282789230347,
                    -1.611269474029541,
                    -1.0773385763168335,
                    -0.5491810441017151,
                    -0.45545604825019836,
                    -0.2458624243736267,
                    0.5524675846099854,
                    -0.5217959880828857,
                    -1.0165406465530396,
                    0.7435099482536316,
                    -0.555916428565979,
                    0.2315368354320526,
                    -0.519599974155426,
                    -1.2531824111938477,
                    0.7963119149208069,
                    -0.7102636694908142,
                    -0.23509269952774048,
                    0.346891313791275,
                    0.4589807987213135,
                    -0.3890875577926636,
                    0.39034995436668396,
                    -0.11296751350164413,
                    0.555749237537384,
                    0.3380463719367981,
                    0.5275880694389343,
                    -0.18223819136619568,
                    -0.3596593141555786,
                    0.23882700502872467,
                    0.3373367488384247,
                    -0.41657811403274536,
                    0.27588555216789246,
                    -0.10505350679159164,
                    0.4536733329296112,
                    0.3729740381240845,
                    -0.39316612482070923,
                    0.3592017590999603,
                    -0.18723377585411072,
                    -0.3709184229373932,
                    0.29126009345054626,
                    0.1893651932477951,
                    0.22272296249866486,
                    1.3744453191757202,
                    0.1514607071876526,
                    0.02655741199851036,
                    -0.021688520908355713,
                    0.07262536138296127,
                    0.10258647054433823,
                    -0.20758487284183502,
                    0.13613379001617432,
                    -0.02760371007025242,
                    -0.10043713450431824,
                    0.562347412109375,
                    0.32949405908584595,
                    0.6038327813148499,
                    0.042951490730047226,
                    0.0635157972574234,
                    0.1118883490562439,
                    0.5886625051498413,
                    -0.41453754901885986
                ]
            },
            "cellActivationBias": {
                "rows": 20,
                "columns": 1,
                "weights": [
                    0.146867573261261,
                    0.11307993531227112,
                    0.5250146985054016,
                    0.7002734541893005,
                    0.10750070214271545,
                    -1.103689432144165,
                    0.7465901970863342,
                    0.05364831164479256,
                    -0.3099968433380127,
                    0.17031903564929962,
                    0.012247451581060886,
                    -0.11433565616607666,
                    0.8016431927680969,
                    0.6046721935272217,
                    0.3436777889728546,
                    -0.16305537521839142,
                    0.024456394836306572,
                    1.2244596481323242,
                    0.44194796681404114,
                    -0.6255756616592407
                ]
            }
        }
    ],
    "outputConnector": {
        "rows": 1,
        "columns": 20,
        "weights": [
            -0.3467738926410675,
            0.2744002342224121,
            0.1096101701259613,
            -0.035935837775468826,
            0.15737029910087585,
            1.8067833185195923,
            1.7545108795166016,
            -0.2593015134334564,
            0.6633127927780151,
            0.2572755515575409,
            -0.31181594729423523,
            0.38335418701171875,
            -0.5546008348464966,
            -1.484183430671692,
            0.37779247760772705,
            -0.2731582820415497,
            0.3346303403377533,
            -1.6150383949279785,
            -0.2017735093832016,
            1.650164008140564
        ]
    },
    "output": {
        "rows": 1,
        "columns": 1,
        "weights": [
            3.022146463394165
        ]
    },
    "inputLookup": null,
    "inputLookupLength": 0,
    "outputLookup": null,
    "outputLookupLength": 0
}